<?xml version="1.0"?>
<opencv_storage>
<cascade>
  <stageType>BOOST</stageType>
  <featureType>HAAR</featureType>
  <height>55</height>
  <width>36</width>
  <stageParams>
    <boostType>GAB</boostType>
    <minHitRate>9.9989998340606689e-01</minHitRate>
    <maxFalseAlarm>2.0000000298023224e-01</maxFalseAlarm>
    <weightTrimRate>9.4999999999999996e-01</weightTrimRate>
    <maxDepth>1</maxDepth>
    <maxWeakCount>100</maxWeakCount></stageParams>
  <featureParams>
    <maxCatCount>0</maxCatCount>
    <featSize>1</featSize>
    <mode>ALL</mode></featureParams>
  <stageNum>7</stageNum>
  <stages>
    <!-- stage 0 -->
    <_>
      <maxWeakCount>3</maxWeakCount>
      <stageThreshold>-1.2740948200225830e+00</stageThreshold>
      <weakClassifiers>
        <_>
          <internalNodes>
            0 -1 2 5.9536505490541458e-02</internalNodes>
          <leafValues>
            -9.7496247291564941e-01 7.4887889623641968e-01</leafValues></_>
        <_>
          <internalNodes>
            0 -1 9 2.6115354150533676e-02</internalNodes>
          <leafValues>
            -9.4924122095108032e-01 8.5013771057128906e-01</leafValues></_>
        <_>
          <internalNodes>
            0 -1 19 -3.1834948807954788e-02</internalNodes>
          <leafValues>
            6.5010875463485718e-01 -9.7982496023178101e-01</leafValues></_></weakClassifiers></_>
    <!-- stage 1 -->
    <_>
      <maxWeakCount>4</maxWeakCount>
      <stageThreshold>-8.9100480079650879e-01</stageThreshold>
      <weakClassifiers>
        <_>
          <internalNodes>
            0 -1 5 8.5215568542480469e-02</internalNodes>
          <leafValues>
            -9.4731706380844116e-01 9.5294117927551270e-01</leafValues></_>
        <_>
          <internalNodes>
            0 -1 11 -3.4720066934823990e-02</internalNodes>
          <leafValues>
            4.5314610004425049e-01 -9.3000328540802002e-01</leafValues></_>
        <_>
          <internalNodes>
            0 -1 10 -1.6392936231568456e-03</internalNodes>
          <leafValues>
            5.4007929563522339e-01 -9.1462242603302002e-01</leafValues></_>
        <_>
          <internalNodes>
            0 -1 0 5.5454010143876076e-03</internalNodes>
          <leafValues>
            -9.3691313266754150e-01 5.7663458585739136e-01</leafValues></_></weakClassifiers></_>
    <!-- stage 2 -->
    <_>
      <maxWeakCount>3</maxWeakCount>
      <stageThreshold>-1.0896959304809570e+00</stageThreshold>
      <weakClassifiers>
        <_>
          <internalNodes>
            0 -1 16 4.0715213865041733e-02</internalNodes>
          <leafValues>
            -9.4636762142181396e-01 9.5266270637512207e-01</leafValues></_>
        <_>
          <internalNodes>
            0 -1 6 2.6913192123174667e-02</internalNodes>
          <leafValues>
            -8.7929540872573853e-01 7.3708516359329224e-01</leafValues></_>
        <_>
          <internalNodes>
            0 -1 7 1.7050486057996750e-02</internalNodes>
          <leafValues>
            -8.8041347265243530e-01 7.5118291378021240e-01</leafValues></_></weakClassifiers></_>
    <!-- stage 3 -->
    <_>
      <maxWeakCount>3</maxWeakCount>
      <stageThreshold>-1.3264963626861572e+00</stageThreshold>
      <weakClassifiers>
        <_>
          <internalNodes>
            0 -1 15 -9.3995975330471992e-03</internalNodes>
          <leafValues>
            9.1160219907760620e-01 -9.5389896631240845e-01</leafValues></_>
        <_>
          <internalNodes>
            0 -1 20 -2.8698749840259552e-02</internalNodes>
          <leafValues>
            6.7215275764465332e-01 -9.4868946075439453e-01</leafValues></_>
        <_>
          <internalNodes>
            0 -1 13 7.0485821925103664e-03</internalNodes>
          <leafValues>
            -9.8237150907516479e-01 5.7609206438064575e-01</leafValues></_></weakClassifiers></_>
    <!-- stage 4 -->
    <_>
      <maxWeakCount>3</maxWeakCount>
      <stageThreshold>-1.3650975227355957e+00</stageThreshold>
      <weakClassifiers>
        <_>
          <internalNodes>
            0 -1 17 -6.7580817267298698e-03</internalNodes>
          <leafValues>
            9.1011238098144531e-01 -9.5102840662002563e-01</leafValues></_>
        <_>
          <internalNodes>
            0 -1 12 -5.1431776955723763e-03</internalNodes>
          <leafValues>
            6.5823340415954590e-01 -9.5225524902343750e-01</leafValues></_>
        <_>
          <internalNodes>
            0 -1 14 -5.2796024829149246e-03</internalNodes>
          <leafValues>
            5.3818613290786743e-01 -9.1196417808532715e-01</leafValues></_></weakClassifiers></_>
    <!-- stage 5 -->
    <_>
      <maxWeakCount>3</maxWeakCount>
      <stageThreshold>-1.0720020532608032e+00</stageThreshold>
      <weakClassifiers>
        <_>
          <internalNodes>
            0 -1 8 -1.2947598099708557e-01</internalNodes>
          <leafValues>
            8.4541064500808716e-01 -9.7118729352951050e-01</leafValues></_>
        <_>
          <internalNodes>
            0 -1 3 -2.0523490384221077e-03</internalNodes>
          <leafValues>
            7.5150644779205322e-01 -9.3667250871658325e-01</leafValues></_>
        <_>
          <internalNodes>
            0 -1 1 2.5822017341852188e-02</internalNodes>
          <leafValues>
            -8.5232120752334595e-01 9.2858684062957764e-01</leafValues></_></weakClassifiers></_>
    <!-- stage 6 -->
    <_>
      <maxWeakCount>2</maxWeakCount>
      <stageThreshold>3.9920159615576267e-03</stageThreshold>
      <weakClassifiers>
        <_>
          <internalNodes>
            0 -1 18 -3.3353973180055618e-02</internalNodes>
          <leafValues>
            1. -9.9600797891616821e-01</leafValues></_>
        <_>
          <internalNodes>
            0 -1 4 -8.6225476115942001e-03</internalNodes>
          <leafValues>
            -9.8223102092742920e-01 1.</leafValues></_></weakClassifiers></_></stages>
  <features>
    <_>
      <rects>
        <_>
          0 15 6 8 -1.</_>
        <_>
          3 15 3 8 2.</_></rects>
      <tilted>0</tilted></_>
    <_>
      <rects>
        <_>
          1 6 12 17 -1.</_>
        <_>
          5 6 4 17 3.</_></rects>
      <tilted>0</tilted></_>
    <_>
      <rects>
        <_>
          1 6 16 31 -1.</_>
        <_>
          5 6 8 31 2.</_></rects>
      <tilted>0</tilted></_>
    <_>
      <rects>
        <_>
          3 49 19 6 -1.</_>
        <_>
          3 52 19 3 2.</_></rects>
      <tilted>0</tilted></_>
    <_>
      <rects>
        <_>
          7 1 12 41 -1.</_>
        <_>
          10 1 6 41 2.</_></rects>
      <tilted>0</tilted></_>
    <_>
      <rects>
        <_>
          7 26 22 20 -1.</_>
        <_>
          7 31 22 10 2.</_></rects>
      <tilted>0</tilted></_>
    <_>
      <rects>
        <_>
          9 23 15 20 -1.</_>
        <_>
          9 28 15 10 2.</_></rects>
      <tilted>0</tilted></_>
    <_>
      <rects>
        <_>
          9 27 8 28 -1.</_>
        <_>
          9 27 4 14 2.</_>
        <_>
          13 41 4 14 2.</_></rects>
      <tilted>0</tilted></_>
    <_>
      <rects>
        <_>
          10 12 18 30 -1.</_>
        <_>
          16 22 6 10 9.</_></rects>
      <tilted>0</tilted></_>
    <_>
      <rects>
        <_>
          11 38 12 15 -1.</_>
        <_>
          14 38 6 15 2.</_></rects>
      <tilted>0</tilted></_>
    <_>
      <rects>
        <_>
          15 0 4 2 -1.</_>
        <_>
          15 0 2 2 2.</_></rects>
      <tilted>1</tilted></_>
    <_>
      <rects>
        <_>
          15 24 12 22 -1.</_>
        <_>
          15 24 6 11 2.</_>
        <_>
          21 35 6 11 2.</_></rects>
      <tilted>0</tilted></_>
    <_>
      <rects>
        <_>
          16 40 6 10 -1.</_>
        <_>
          19 40 3 10 2.</_></rects>
      <tilted>0</tilted></_>
    <_>
      <rects>
        <_>
          18 33 2 14 -1.</_>
        <_>
          18 33 2 7 2.</_></rects>
      <tilted>1</tilted></_>
    <_>
      <rects>
        <_>
          21 1 14 8 -1.</_>
        <_>
          21 1 7 4 2.</_>
        <_>
          28 5 7 4 2.</_></rects>
      <tilted>0</tilted></_>
    <_>
      <rects>
        <_>
          22 27 6 4 -1.</_>
        <_>
          22 27 3 4 2.</_></rects>
      <tilted>1</tilted></_>
    <_>
      <rects>
        <_>
          23 25 12 8 -1.</_>
        <_>
          26 28 6 8 2.</_></rects>
      <tilted>1</tilted></_>
    <_>
      <rects>
        <_>
          23 28 4 6 -1.</_>
        <_>
          23 28 2 6 2.</_></rects>
      <tilted>1</tilted></_>
    <_>
      <rects>
        <_>
          25 0 10 37 -1.</_>
        <_>
          30 0 5 37 2.</_></rects>
      <tilted>0</tilted></_>
    <_>
      <rects>
        <_>
          26 7 10 20 -1.</_>
        <_>
          31 7 5 20 2.</_></rects>
      <tilted>0</tilted></_>
    <_>
      <rects>
        <_>
          28 8 8 19 -1.</_>
        <_>
          32 8 4 19 2.</_></rects>
      <tilted>0</tilted></_></features></cascade>
</opencv_storage>
